<?xml version="1.0"?>
<opencv_storage>
<cascade>
  <stageType>BOOST</stageType>
  <featureType>HAAR</featureType>
  <height>90</height>
  <width>90</width>
  <stageParams>
    <boostType>GAB</boostType>
    <minHitRate>9.9900001287460327e-01</minHitRate>
    <maxFalseAlarm>5.0000000000000000e-01</maxFalseAlarm>
    <weightTrimRate>9.4999999999999996e-01</weightTrimRate>
    <maxDepth>1</maxDepth>
    <maxWeakCount>100</maxWeakCount></stageParams>
  <featureParams>
    <maxCatCount>0</maxCatCount>
    <featSize>1</featSize>
    <mode>ALL</mode></featureParams>
  <stageNum>3</stageNum>
  <stages>
    <!-- stage 0 -->
    <_>
      <maxWeakCount>5</maxWeakCount>
      <stageThreshold>-1.9623706340789795e+00</stageThreshold>
      <weakClassifiers>
        <_>
          <internalNodes>
            0 -1 2 8.9302495121955872e-02</internalNodes>
          <leafValues>
            -9.2965877056121826e-01 9.5859766006469727e-01</leafValues></_>
        <_>
          <internalNodes>
            0 -1 12 -1.3764791190624237e-02</internalNodes>
          <leafValues>
            8.8650882244110107e-01 -7.8688019514083862e-01</leafValues></_>
        <_>
          <internalNodes>
            0 -1 6 6.5338909626007080e-03</internalNodes>
          <leafValues>
            -5.5626606941223145e-01 9.5807856321334839e-01</leafValues></_>
        <_>
          <internalNodes>
            0 -1 13 -1.2820854783058167e-02</internalNodes>
          <leafValues>
            8.0188804864883423e-01 -4.9459725618362427e-01</leafValues></_>
        <_>
          <internalNodes>
            0 -1 4 -2.1105274558067322e-02</internalNodes>
          <leafValues>
            8.0503171682357788e-01 -5.6122046709060669e-01</leafValues></_></weakClassifiers></_>
    <!-- stage 1 -->
    <_>
      <maxWeakCount>4</maxWeakCount>
      <stageThreshold>-1.4975091218948364e+00</stageThreshold>
      <weakClassifiers>
        <_>
          <internalNodes>
            0 -1 9 1.0390381515026093e-01</internalNodes>
          <leafValues>
            -8.6046510934829712e-01 9.5893222093582153e-01</leafValues></_>
        <_>
          <internalNodes>
            0 -1 10 -1.6058161854743958e-02</internalNodes>
          <leafValues>
            8.4053695201873779e-01 -8.3200532197952271e-01</leafValues></_>
        <_>
          <internalNodes>
            0 -1 1 4.5528203248977661e-02</internalNodes>
          <leafValues>
            -7.5117909908294678e-01 8.1909751892089844e-01</leafValues></_>
        <_>
          <internalNodes>
            0 -1 8 -2.4915304034948349e-02</internalNodes>
          <leafValues>
            9.4614040851593018e-01 -4.5114007592201233e-01</leafValues></_></weakClassifiers></_>
    <!-- stage 2 -->
    <_>
      <maxWeakCount>5</maxWeakCount>
      <stageThreshold>-1.2586480379104614e+00</stageThreshold>
      <weakClassifiers>
        <_>
          <internalNodes>
            0 -1 3 9.5523953437805176e-02</internalNodes>
          <leafValues>
            -8.8391906023025513e-01 9.1330242156982422e-01</leafValues></_>
        <_>
          <internalNodes>
            0 -1 7 1.4880326390266418e-01</internalNodes>
          <leafValues>
            -6.1398971080780029e-01 9.2891293764114380e-01</leafValues></_>
        <_>
          <internalNodes>
            0 -1 11 -2.4268783628940582e-02</internalNodes>
          <leafValues>
            9.5599448680877686e-01 -3.2255971431732178e-01</leafValues></_>
        <_>
          <internalNodes>
            0 -1 0 3.3441421389579773e-01</internalNodes>
          <leafValues>
            -4.0446177124977112e-01 9.9583983421325684e-01</leafValues></_>
        <_>
          <internalNodes>
            0 -1 5 -5.6914143264293671e-02</internalNodes>
          <leafValues>
            9.6628224849700928e-01 -3.4300059080123901e-01</leafValues></_></weakClassifiers></_></stages>
  <features>
    <_>
      <rects>
        <_>
          12 26 69 39 -1.</_>
        <_>
          35 39 23 13 9.</_></rects>
      <tilted>0</tilted></_>
    <_>
      <rects>
        <_>
          13 41 57 9 -1.</_>
        <_>
          32 44 19 3 9.</_></rects>
      <tilted>0</tilted></_>
    <_>
      <rects>
        <_>
          20 35 48 21 -1.</_>
        <_>
          36 42 16 7 9.</_></rects>
      <tilted>0</tilted></_>
    <_>
      <rects>
        <_>
          23 36 51 18 -1.</_>
        <_>
          40 42 17 6 9.</_></rects>
      <tilted>0</tilted></_>
    <_>
      <rects>
        <_>
          30 5 33 34 -1.</_>
        <_>
          30 22 33 17 2.</_></rects>
      <tilted>0</tilted></_>
    <_>
      <rects>
        <_>
          30 17 35 56 -1.</_>
        <_>
          30 31 35 28 2.</_></rects>
      <tilted>0</tilted></_>
    <_>
      <rects>
        <_>
          30 25 33 1 -1.</_>
        <_>
          41 36 11 1 3.</_></rects>
      <tilted>1</tilted></_>
    <_>
      <rects>
        <_>
          32 24 27 45 -1.</_>
        <_>
          41 39 9 15 9.</_></rects>
      <tilted>0</tilted></_>
    <_>
      <rects>
        <_>
          34 22 20 14 -1.</_>
        <_>
          39 27 10 14 2.</_></rects>
      <tilted>1</tilted></_>
    <_>
      <rects>
        <_>
          35 25 24 45 -1.</_>
        <_>
          43 40 8 15 9.</_></rects>
      <tilted>0</tilted></_>
    <_>
      <rects>
        <_>
          40 35 12 52 -1.</_>
        <_>
          40 48 12 26 2.</_></rects>
      <tilted>0</tilted></_>
    <_>
      <rects>
        <_>
          42 40 32 11 -1.</_>
        <_>
          50 40 16 11 2.</_></rects>
      <tilted>0</tilted></_>
    <_>
      <rects>
        <_>
          45 38 36 5 -1.</_>
        <_>
          54 47 18 5 2.</_></rects>
      <tilted>1</tilted></_>
    <_>
      <rects>
        <_>
          46 40 6 32 -1.</_>
        <_>
          38 48 6 16 2.</_></rects>
      <tilted>1</tilted></_></features></cascade>
</opencv_storage>
